<?xml version="1.0"?>
<opencv_storage>
<cascade>
  <stageType>BOOST</stageType>
  <featureType>HAAR</featureType>
  <height>40</height>
  <width>80</width>
  <stageParams>
    <boostType>GAB</boostType>
    <minHitRate>9.9900001287460327e-01</minHitRate>
    <maxFalseAlarm>5.0000000000000000e-01</maxFalseAlarm>
    <weightTrimRate>9.4999999999999996e-01</weightTrimRate>
    <maxDepth>1</maxDepth>
    <maxWeakCount>100</maxWeakCount></stageParams>
  <featureParams>
    <maxCatCount>0</maxCatCount>
    <featSize>1</featSize>
    <mode>ALL</mode></featureParams>
  <stageNum>14</stageNum>
  <stages>
    <!-- stage 0 -->
    <_>
      <maxWeakCount>2</maxWeakCount>
      <stageThreshold>-5.5707901716232300e-02</stageThreshold>
      <weakClassifiers>
        <_>
          <internalNodes>
            0 -1 43 1.8653154838830233e-03</internalNodes>
          <leafValues>
            -9.7643095254898071e-01 9.7415506839752197e-01</leafValues></_>
        <_>
          <internalNodes>
            0 -1 33 3.6126235499978065e-03</internalNodes>
          <leafValues>
            -9.9371016025543213e-01 9.2072308063507080e-01</leafValues></_></weakClassifiers></_>
    <!-- stage 1 -->
    <_>
      <maxWeakCount>3</maxWeakCount>
      <stageThreshold>-1.0833883285522461e+00</stageThreshold>
      <weakClassifiers>
        <_>
          <internalNodes>
            0 -1 39 -2.2587359126191586e-04</internalNodes>
          <leafValues>
            9.1601562500000000e-01 -9.3402779102325439e-01</leafValues></_>
        <_>
          <internalNodes>
            0 -1 37 7.4173919856548309e-03</internalNodes>
          <leafValues>
            -9.1360241174697876e-01 8.3067113161087036e-01</leafValues></_>
        <_>
          <internalNodes>
            0 -1 56 2.2035345900803804e-03</internalNodes>
          <leafValues>
            -8.5143828392028809e-01 7.6424187421798706e-01</leafValues></_></weakClassifiers></_>
    <!-- stage 2 -->
    <_>
      <maxWeakCount>3</maxWeakCount>
      <stageThreshold>-1.0127245187759399e+00</stageThreshold>
      <weakClassifiers>
        <_>
          <internalNodes>
            0 -1 19 -2.0521464757621288e-03</internalNodes>
          <leafValues>
            8.3572113513946533e-01 -8.5895115137100220e-01</leafValues></_>
        <_>
          <internalNodes>
            0 -1 9 1.5779970213770866e-02</internalNodes>
          <leafValues>
            -9.7992098331451416e-01 6.7575681209564209e-01</leafValues></_>
        <_>
          <internalNodes>
            0 -1 3 5.1319822669029236e-03</internalNodes>
          <leafValues>
            -6.8253237009048462e-01 8.2614761590957642e-01</leafValues></_></weakClassifiers></_>
    <!-- stage 3 -->
    <_>
      <maxWeakCount>5</maxWeakCount>
      <stageThreshold>-1.2490706443786621e+00</stageThreshold>
      <weakClassifiers>
        <_>
          <internalNodes>
            0 -1 34 -4.6091631520539522e-04</internalNodes>
          <leafValues>
            7.5473397970199585e-01 -8.9002037048339844e-01</leafValues></_>
        <_>
          <internalNodes>
            0 -1 17 5.6304107420146465e-04</internalNodes>
          <leafValues>
            -7.8718966245651245e-01 7.3962122201919556e-01</leafValues></_>
        <_>
          <internalNodes>
            0 -1 15 8.0637093633413315e-03</internalNodes>
          <leafValues>
            -8.7877058982849121e-01 6.0329854488372803e-01</leafValues></_>
        <_>
          <internalNodes>
            0 -1 25 6.0119212139397860e-04</internalNodes>
          <leafValues>
            -9.3453812599182129e-01 5.3290796279907227e-01</leafValues></_>
        <_>
          <internalNodes>
            0 -1 66 -8.0369011266157031e-04</internalNodes>
          <leafValues>
            7.7400195598602295e-01 -6.3676542043685913e-01</leafValues></_></weakClassifiers></_>
    <!-- stage 4 -->
    <_>
      <maxWeakCount>5</maxWeakCount>
      <stageThreshold>-1.4016559123992920e+00</stageThreshold>
      <weakClassifiers>
        <_>
          <internalNodes>
            0 -1 24 -6.1724218539893627e-04</internalNodes>
          <leafValues>
            7.5468164682388306e-01 -7.6315790414810181e-01</leafValues></_>
        <_>
          <internalNodes>
            0 -1 8 6.6783698275685310e-03</internalNodes>
          <leafValues>
            -9.3188101053237915e-01 5.5307710170745850e-01</leafValues></_>
        <_>
          <internalNodes>
            0 -1 48 1.5237561892718077e-03</internalNodes>
          <leafValues>
            -8.6994320154190063e-01 5.2051049470901489e-01</leafValues></_>
        <_>
          <internalNodes>
            0 -1 40 -2.1806637232657522e-04</internalNodes>
          <leafValues>
            5.1299482583999634e-01 -8.3588480949401855e-01</leafValues></_>
        <_>
          <internalNodes>
            0 -1 65 -6.0595350805670023e-04</internalNodes>
          <leafValues>
            5.1425296068191528e-01 -7.5827455520629883e-01</leafValues></_></weakClassifiers></_>
    <!-- stage 5 -->
    <_>
      <maxWeakCount>5</maxWeakCount>
      <stageThreshold>-1.1625714302062988e+00</stageThreshold>
      <weakClassifiers>
        <_>
          <internalNodes>
            0 -1 49 -4.2509811464697123e-04</internalNodes>
          <leafValues>
            6.6751915216445923e-01 -8.9695549011230469e-01</leafValues></_>
        <_>
          <internalNodes>
            0 -1 10 1.1356553062796593e-02</internalNodes>
          <leafValues>
            -6.7325150966644287e-01 7.3416775465011597e-01</leafValues></_>
        <_>
          <internalNodes>
            0 -1 68 -1.8911795923486352e-03</internalNodes>
          <leafValues>
            7.1483325958251953e-01 -6.2964338064193726e-01</leafValues></_>
        <_>
          <internalNodes>
            0 -1 46 4.6281367540359497e-03</internalNodes>
          <leafValues>
            -9.7494626045227051e-01 5.1082330942153931e-01</leafValues></_>
        <_>
          <internalNodes>
            0 -1 55 -1.4063572743907571e-03</internalNodes>
          <leafValues>
            5.2645564079284668e-01 -7.1760314702987671e-01</leafValues></_></weakClassifiers></_>
    <!-- stage 6 -->
    <_>
      <maxWeakCount>5</maxWeakCount>
      <stageThreshold>-1.4340087175369263e+00</stageThreshold>
      <weakClassifiers>
        <_>
          <internalNodes>
            0 -1 41 -3.4920120378956199e-04</internalNodes>
          <leafValues>
            7.2207087278366089e-01 -7.9158318042755127e-01</leafValues></_>
        <_>
          <internalNodes>
            0 -1 57 1.7344448715448380e-03</internalNodes>
          <leafValues>
            -8.4986668825149536e-01 6.0607916116714478e-01</leafValues></_>
        <_>
          <internalNodes>
            0 -1 58 1.0132796596735716e-03</internalNodes>
          <leafValues>
            -7.8983449935913086e-01 5.2990376949310303e-01</leafValues></_>
        <_>
          <internalNodes>
            0 -1 5 2.4757743813097477e-03</internalNodes>
          <leafValues>
            -9.7158181667327881e-01 4.1017553210258484e-01</leafValues></_>
        <_>
          <internalNodes>
            0 -1 18 9.2141178902238607e-04</internalNodes>
          <leafValues>
            -6.8165087699890137e-01 5.8710014820098877e-01</leafValues></_></weakClassifiers></_>
    <!-- stage 7 -->
    <_>
      <maxWeakCount>7</maxWeakCount>
      <stageThreshold>-1.5708798170089722e+00</stageThreshold>
      <weakClassifiers>
        <_>
          <internalNodes>
            0 -1 4 4.2455941438674927e-03</internalNodes>
          <leafValues>
            -6.2613427639007568e-01 7.1020019054412842e-01</leafValues></_>
        <_>
          <internalNodes>
            0 -1 26 -4.1690268553793430e-03</internalNodes>
          <leafValues>
            4.7043573856353760e-01 -9.7884273529052734e-01</leafValues></_>
        <_>
          <internalNodes>
            0 -1 23 4.0625128895044327e-03</internalNodes>
          <leafValues>
            -9.6822637319564819e-01 4.4620665907859802e-01</leafValues></_>
        <_>
          <internalNodes>
            0 -1 51 -7.7394384425133467e-04</internalNodes>
          <leafValues>
            5.4191285371780396e-01 -6.5643864870071411e-01</leafValues></_>
        <_>
          <internalNodes>
            0 -1 32 -8.7769345554988831e-05</internalNodes>
          <leafValues>
            4.5803436636924744e-01 -7.2010427713394165e-01</leafValues></_>
        <_>
          <internalNodes>
            0 -1 11 2.0563565194606781e-03</internalNodes>
          <leafValues>
            -9.9430894851684570e-01 3.3904260396957397e-01</leafValues></_>
        <_>
          <internalNodes>
            0 -1 63 1.2104089837521315e-03</internalNodes>
          <leafValues>
            -5.8759313821792603e-01 6.5039336681365967e-01</leafValues></_></weakClassifiers></_>
    <!-- stage 8 -->
    <_>
      <maxWeakCount>7</maxWeakCount>
      <stageThreshold>-1.7519853115081787e+00</stageThreshold>
      <weakClassifiers>
        <_>
          <internalNodes>
            0 -1 56 2.7183408383280039e-03</internalNodes>
          <leafValues>
            -6.3016158342361450e-01 7.2003835439682007e-01</leafValues></_>
        <_>
          <internalNodes>
            0 -1 52 -2.7685647364705801e-04</internalNodes>
          <leafValues>
            5.3813284635543823e-01 -7.3029375076293945e-01</leafValues></_>
        <_>
          <internalNodes>
            0 -1 12 2.4600625038146973e-03</internalNodes>
          <leafValues>
            -5.7839632034301758e-01 6.3903909921646118e-01</leafValues></_>
        <_>
          <internalNodes>
            0 -1 54 -5.2653538295999169e-04</internalNodes>
          <leafValues>
            4.7703173756599426e-01 -8.7757140398025513e-01</leafValues></_>
        <_>
          <internalNodes>
            0 -1 6 1.1526622110977769e-03</internalNodes>
          <leafValues>
            -7.3081791400909424e-01 4.6423467993736267e-01</leafValues></_>
        <_>
          <internalNodes>
            0 -1 64 3.3649397082626820e-03</internalNodes>
          <leafValues>
            -9.3128079175949097e-01 3.0497655272483826e-01</leafValues></_>
        <_>
          <internalNodes>
            0 -1 28 6.0848350403830409e-04</internalNodes>
          <leafValues>
            -9.5211488008499146e-01 3.1404832005500793e-01</leafValues></_></weakClassifiers></_>
    <!-- stage 9 -->
    <_>
      <maxWeakCount>7</maxWeakCount>
      <stageThreshold>-1.2586158514022827e+00</stageThreshold>
      <weakClassifiers>
        <_>
          <internalNodes>
            0 -1 7 2.0519834943115711e-03</internalNodes>
          <leafValues>
            -6.7145788669586182e-01 6.5318959951400757e-01</leafValues></_>
        <_>
          <internalNodes>
            0 -1 42 1.4784443192183971e-03</internalNodes>
          <leafValues>
            -8.9001536369323730e-01 4.1915863752365112e-01</leafValues></_>
        <_>
          <internalNodes>
            0 -1 22 3.9952313527464867e-03</internalNodes>
          <leafValues>
            -7.9506820440292358e-01 4.3668627738952637e-01</leafValues></_>
        <_>
          <internalNodes>
            0 -1 27 6.0927629237994552e-04</internalNodes>
          <leafValues>
            -9.7933346033096313e-01 2.7811929583549500e-01</leafValues></_>
        <_>
          <internalNodes>
            0 -1 35 2.4083054449874908e-04</internalNodes>
          <leafValues>
            3.4470546245574951e-01 -9.6407860517501831e-01</leafValues></_>
        <_>
          <internalNodes>
            0 -1 2 7.2851171717047691e-04</internalNodes>
          <leafValues>
            -9.7737610340118408e-01 2.0580820739269257e-01</leafValues></_>
        <_>
          <internalNodes>
            0 -1 38 -2.6842945953831077e-04</internalNodes>
          <leafValues>
            -9.5029759407043457e-01 2.6929268240928650e-01</leafValues></_></weakClassifiers></_>
    <!-- stage 10 -->
    <_>
      <maxWeakCount>5</maxWeakCount>
      <stageThreshold>-4.8648455739021301e-01</stageThreshold>
      <weakClassifiers>
        <_>
          <internalNodes>
            0 -1 61 -3.8851718418300152e-03</internalNodes>
          <leafValues>
            5.6722354888916016e-01 -9.1253644227981567e-01</leafValues></_>
        <_>
          <internalNodes>
            0 -1 21 6.7803286947309971e-04</internalNodes>
          <leafValues>
            -9.7682142257690430e-01 3.6913946270942688e-01</leafValues></_>
        <_>
          <internalNodes>
            0 -1 44 5.8767991140484810e-04</internalNodes>
          <leafValues>
            3.3732575178146362e-01 -9.3745142221450806e-01</leafValues></_>
        <_>
          <internalNodes>
            0 -1 67 1.0500674834474921e-03</internalNodes>
          <leafValues>
            -6.6117388010025024e-01 5.6940293312072754e-01</leafValues></_>
        <_>
          <internalNodes>
            0 -1 47 2.0558359101414680e-03</internalNodes>
          <leafValues>
            3.8076052069664001e-01 -9.5357459783554077e-01</leafValues></_></weakClassifiers></_>
    <!-- stage 11 -->
    <_>
      <maxWeakCount>5</maxWeakCount>
      <stageThreshold>-1.4277913570404053e+00</stageThreshold>
      <weakClassifiers>
        <_>
          <internalNodes>
            0 -1 20 -1.5170117840170860e-03</internalNodes>
          <leafValues>
            -9.7653961181640625e-01 5.8220809698104858e-01</leafValues></_>
        <_>
          <internalNodes>
            0 -1 39 -2.8054811991751194e-04</internalNodes>
          <leafValues>
            3.9765933156013489e-01 -8.7148368358612061e-01</leafValues></_>
        <_>
          <internalNodes>
            0 -1 60 3.6909347400069237e-03</internalNodes>
          <leafValues>
            -9.0186423063278198e-01 4.0348085761070251e-01</leafValues></_>
        <_>
          <internalNodes>
            0 -1 1 5.6699211709201336e-03</internalNodes>
          <leafValues>
            -9.8268014192581177e-01 2.9391765594482422e-01</leafValues></_>
        <_>
          <internalNodes>
            0 -1 59 1.5696921618655324e-03</internalNodes>
          <leafValues>
            -5.2311444282531738e-01 7.3520451784133911e-01</leafValues></_></weakClassifiers></_>
    <!-- stage 12 -->
    <_>
      <maxWeakCount>7</maxWeakCount>
      <stageThreshold>-1.7783402204513550e+00</stageThreshold>
      <weakClassifiers>
        <_>
          <internalNodes>
            0 -1 45 -1.6935759922489524e-03</internalNodes>
          <leafValues>
            5.8206564188003540e-01 -9.3162393569946289e-01</leafValues></_>
        <_>
          <internalNodes>
            0 -1 16 1.4368592528626323e-03</internalNodes>
          <leafValues>
            -6.2600469589233398e-01 6.4189612865447998e-01</leafValues></_>
        <_>
          <internalNodes>
            0 -1 0 2.3886803537607193e-03</internalNodes>
          <leafValues>
            4.7037056088447571e-01 -8.0439442396163940e-01</leafValues></_>
        <_>
          <internalNodes>
            0 -1 62 -1.7003720859065652e-03</internalNodes>
          <leafValues>
            -9.7160214185714722e-01 3.4368848800659180e-01</leafValues></_>
        <_>
          <internalNodes>
            0 -1 29 -1.3303597224876285e-03</internalNodes>
          <leafValues>
            -9.7247499227523804e-01 2.9408299922943115e-01</leafValues></_>
        <_>
          <internalNodes>
            0 -1 13 2.7598012238740921e-03</internalNodes>
          <leafValues>
            -5.6050187349319458e-01 6.6418552398681641e-01</leafValues></_>
        <_>
          <internalNodes>
            0 -1 32 -9.1824666014872491e-05</internalNodes>
          <leafValues>
            5.0641322135925293e-01 -7.7811682224273682e-01</leafValues></_></weakClassifiers></_>
    <!-- stage 13 -->
    <_>
      <maxWeakCount>7</maxWeakCount>
      <stageThreshold>-6.7303174734115601e-01</stageThreshold>
      <weakClassifiers>
        <_>
          <internalNodes>
            0 -1 36 5.3119743242859840e-03</internalNodes>
          <leafValues>
            -7.7777779102325439e-01 5.9832638502120972e-01</leafValues></_>
        <_>
          <internalNodes>
            0 -1 53 1.3121846131980419e-03</internalNodes>
          <leafValues>
            -7.1775853633880615e-01 6.0504662990570068e-01</leafValues></_>
        <_>
          <internalNodes>
            0 -1 69 2.0334482542239130e-04</internalNodes>
          <leafValues>
            -6.6691321134567261e-01 5.8874756097793579e-01</leafValues></_>
        <_>
          <internalNodes>
            0 -1 31 3.9058111724443734e-04</internalNodes>
          <leafValues>
            4.1364762187004089e-01 -8.7738466262817383e-01</leafValues></_>
        <_>
          <internalNodes>
            0 -1 50 9.6943567041307688e-04</internalNodes>
          <leafValues>
            -9.2993682622909546e-01 3.3525085449218750e-01</leafValues></_>
        <_>
          <internalNodes>
            0 -1 30 3.2087727449834347e-03</internalNodes>
          <leafValues>
            3.5136839747428894e-01 -8.3976459503173828e-01</leafValues></_>
        <_>
          <internalNodes>
            0 -1 14 2.1091726375743747e-04</internalNodes>
          <leafValues>
            3.9867779612541199e-01 -8.4508740901947021e-01</leafValues></_></weakClassifiers></_></stages>
  <features>
    <_>
      <rects>
        <_>
          22 10 10 19 -1.</_>
        <_>
          27 10 5 19 2.</_></rects>
      <tilted>0</tilted></_>
    <_>
      <rects>
        <_>
          23 19 33 3 -1.</_>
        <_>
          34 20 11 1 9.</_></rects>
      <tilted>0</tilted></_>
    <_>
      <rects>
        <_>
          25 20 28 6 -1.</_>
        <_>
          39 20 14 6 2.</_></rects>
      <tilted>0</tilted></_>
    <_>
      <rects>
        <_>
          27 8 6 16 -1.</_>
        <_>
          27 8 3 8 2.</_>
        <_>
          30 16 3 8 2.</_></rects>
      <tilted>0</tilted></_>
    <_>
      <rects>
        <_>
          27 17 6 7 -1.</_>
        <_>
          30 17 3 7 2.</_></rects>
      <tilted>0</tilted></_>
    <_>
      <rects>
        <_>
          27 18 21 5 -1.</_>
        <_>
          34 18 7 5 3.</_></rects>
      <tilted>0</tilted></_>
    <_>
      <rects>
        <_>
          28 14 4 8 -1.</_>
        <_>
          28 14 2 4 2.</_>
        <_>
          30 18 2 4 2.</_></rects>
      <tilted>0</tilted></_>
    <_>
      <rects>
        <_>
          28 16 8 10 -1.</_>
        <_>
          30 16 4 10 2.</_></rects>
      <tilted>0</tilted></_>
    <_>
      <rects>
        <_>
          30 13 8 16 -1.</_>
        <_>
          30 17 8 8 2.</_></rects>
      <tilted>0</tilted></_>
    <_>
      <rects>
        <_>
          30 13 19 16 -1.</_>
        <_>
          30 21 19 8 2.</_></rects>
      <tilted>0</tilted></_>
    <_>
      <rects>
        <_>
          31 10 18 8 -1.</_>
        <_>
          31 14 18 4 2.</_></rects>
      <tilted>0</tilted></_>
    <_>
      <rects>
        <_>
          31 18 9 5 -1.</_>
        <_>
          34 18 3 5 3.</_></rects>
      <tilted>0</tilted></_>
    <_>
      <rects>
        <_>
          32 10 11 6 -1.</_>
        <_>
          32 13 11 3 2.</_></rects>
      <tilted>0</tilted></_>
    <_>
      <rects>
        <_>
          33 7 9 8 -1.</_>
        <_>
          33 11 9 4 2.</_></rects>
      <tilted>0</tilted></_>
    <_>
      <rects>
        <_>
          33 16 3 9 -1.</_>
        <_>
          34 16 1 9 3.</_></rects>
      <tilted>0</tilted></_>
    <_>
      <rects>
        <_>
          34 12 11 8 -1.</_>
        <_>
          34 16 11 4 2.</_></rects>
      <tilted>0</tilted></_>
    <_>
      <rects>
        <_>
          34 19 3 3 -1.</_>
        <_>
          35 19 1 3 3.</_></rects>
      <tilted>0</tilted></_>
    <_>
      <rects>
        <_>
          34 19 2 4 -1.</_>
        <_>
          35 19 1 4 2.</_></rects>
      <tilted>0</tilted></_>
    <_>
      <rects>
        <_>
          34 20 3 2 -1.</_>
        <_>
          35 20 1 2 3.</_></rects>
      <tilted>0</tilted></_>
    <_>
      <rects>
        <_>
          34 20 9 1 -1.</_>
        <_>
          37 20 3 1 3.</_></rects>
      <tilted>0</tilted></_>
    <_>
      <rects>
        <_>
          35 18 24 7 -1.</_>
        <_>
          43 18 8 7 3.</_></rects>
      <tilted>0</tilted></_>
    <_>
      <rects>
        <_>
          35 20 10 4 -1.</_>
        <_>
          40 20 5 4 2.</_></rects>
      <tilted>0</tilted></_>
    <_>
      <rects>
        <_>
          36 12 9 6 -1.</_>
        <_>
          36 15 9 3 2.</_></rects>
      <tilted>0</tilted></_>
    <_>
      <rects>
        <_>
          36 16 12 6 -1.</_>
        <_>
          40 16 4 6 3.</_></rects>
      <tilted>0</tilted></_>
    <_>
      <rects>
        <_>
          36 19 3 3 -1.</_>
        <_>
          37 19 1 3 3.</_></rects>
      <tilted>0</tilted></_>
    <_>
      <rects>
        <_>
          36 20 4 4 -1.</_>
        <_>
          36 22 4 2 2.</_></rects>
      <tilted>0</tilted></_>
    <_>
      <rects>
        <_>
          37 11 16 4 -1.</_>
        <_>
          37 11 8 4 2.</_></rects>
      <tilted>1</tilted></_>
    <_>
      <rects>
        <_>
          37 16 6 12 -1.</_>
        <_>
          37 22 6 6 2.</_></rects>
      <tilted>0</tilted></_>
    <_>
      <rects>
        <_>
          37 20 3 4 -1.</_>
        <_>
          37 22 3 2 2.</_></rects>
      <tilted>0</tilted></_>
    <_>
      <rects>
        <_>
          38 16 10 2 -1.</_>
        <_>
          38 16 5 2 2.</_></rects>
      <tilted>1</tilted></_>
    <_>
      <rects>
        <_>
          38 16 21 11 -1.</_>
        <_>
          45 16 7 11 3.</_></rects>
      <tilted>0</tilted></_>
    <_>
      <rects>
        <_>
          38 18 6 4 -1.</_>
        <_>
          38 18 3 4 2.</_></rects>
      <tilted>1</tilted></_>
    <_>
      <rects>
        <_>
          38 19 2 2 -1.</_>
        <_>
          38 19 1 1 2.</_>
        <_>
          39 20 1 1 2.</_></rects>
      <tilted>0</tilted></_>
    <_>
      <rects>
        <_>
          38 19 6 3 -1.</_>
        <_>
          40 20 2 1 9.</_></rects>
      <tilted>0</tilted></_>
    <_>
      <rects>
        <_>
          38 20 3 1 -1.</_>
        <_>
          39 20 1 1 3.</_></rects>
      <tilted>0</tilted></_>
    <_>
      <rects>
        <_>
          38 20 4 4 -1.</_>
        <_>
          38 22 4 2 2.</_></rects>
      <tilted>0</tilted></_>
    <_>
      <rects>
        <_>
          39 12 2 18 -1.</_>
        <_>
          39 18 2 6 3.</_></rects>
      <tilted>0</tilted></_>
    <_>
      <rects>
        <_>
          39 16 3 9 -1.</_>
        <_>
          40 19 1 3 9.</_></rects>
      <tilted>0</tilted></_>
    <_>
      <rects>
        <_>
          39 16 10 4 -1.</_>
        <_>
          39 16 5 4 2.</_></rects>
      <tilted>1</tilted></_>
    <_>
      <rects>
        <_>
          39 19 1 3 -1.</_>
        <_>
          39 20 1 1 3.</_></rects>
      <tilted>0</tilted></_>
    <_>
      <rects>
        <_>
          39 19 1 4 -1.</_>
        <_>
          39 20 1 2 2.</_></rects>
      <tilted>0</tilted></_>
    <_>
      <rects>
        <_>
          39 19 2 3 -1.</_>
        <_>
          39 20 2 1 3.</_></rects>
      <tilted>0</tilted></_>
    <_>
      <rects>
        <_>
          39 20 3 3 -1.</_>
        <_>
          40 21 1 1 9.</_></rects>
      <tilted>0</tilted></_>
    <_>
      <rects>
        <_>
          40 13 1 10 -1.</_>
        <_>
          40 18 1 5 2.</_></rects>
      <tilted>0</tilted></_>
    <_>
      <rects>
        <_>
          40 14 1 16 -1.</_>
        <_>
          40 22 1 8 2.</_></rects>
      <tilted>0</tilted></_>
    <_>
      <rects>
        <_>
          40 16 8 11 -1.</_>
        <_>
          44 16 4 11 2.</_></rects>
      <tilted>0</tilted></_>
    <_>
      <rects>
        <_>
          40 16 7 9 -1.</_>
        <_>
          40 19 7 3 3.</_></rects>
      <tilted>0</tilted></_>
    <_>
      <rects>
        <_>
          40 17 5 6 -1.</_>
        <_>
          40 17 5 3 2.</_></rects>
      <tilted>1</tilted></_>
    <_>
      <rects>
        <_>
          40 18 2 6 -1.</_>
        <_>
          40 20 2 2 3.</_></rects>
      <tilted>0</tilted></_>
    <_>
      <rects>
        <_>
          41 18 3 4 -1.</_>
        <_>
          42 18 1 4 3.</_></rects>
      <tilted>0</tilted></_>
    <_>
      <rects>
        <_>
          41 19 4 4 -1.</_>
        <_>
          41 19 2 4 2.</_></rects>
      <tilted>1</tilted></_>
    <_>
      <rects>
        <_>
          41 21 3 1 -1.</_>
        <_>
          42 22 1 1 3.</_></rects>
      <tilted>1</tilted></_>
    <_>
      <rects>
        <_>
          41 21 5 3 -1.</_>
        <_>
          41 22 5 1 3.</_></rects>
      <tilted>0</tilted></_>
    <_>
      <rects>
        <_>
          42 10 2 8 -1.</_>
        <_>
          42 14 2 4 2.</_></rects>
      <tilted>0</tilted></_>
    <_>
      <rects>
        <_>
          42 15 4 3 -1.</_>
        <_>
          41 16 4 1 3.</_></rects>
      <tilted>1</tilted></_>
    <_>
      <rects>
        <_>
          42 18 2 5 -1.</_>
        <_>
          42 18 1 5 2.</_></rects>
      <tilted>1</tilted></_>
    <_>
      <rects>
        <_>
          42 18 3 5 -1.</_>
        <_>
          43 19 1 5 3.</_></rects>
      <tilted>1</tilted></_>
    <_>
      <rects>
        <_>
          42 18 2 3 -1.</_>
        <_>
          41 19 2 1 3.</_></rects>
      <tilted>1</tilted></_>
    <_>
      <rects>
        <_>
          43 12 2 6 -1.</_>
        <_>
          43 15 2 3 2.</_></rects>
      <tilted>0</tilted></_>
    <_>
      <rects>
        <_>
          43 12 5 3 -1.</_>
        <_>
          42 13 5 1 3.</_></rects>
      <tilted>1</tilted></_>
    <_>
      <rects>
        <_>
          43 16 3 6 -1.</_>
        <_>
          41 18 3 2 3.</_></rects>
      <tilted>1</tilted></_>
    <_>
      <rects>
        <_>
          45 12 5 14 -1.</_>
        <_>
          45 12 5 7 2.</_></rects>
      <tilted>1</tilted></_>
    <_>
      <rects>
        <_>
          45 15 4 14 -1.</_>
        <_>
          45 15 4 7 2.</_></rects>
      <tilted>1</tilted></_>
    <_>
      <rects>
        <_>
          45 21 4 5 -1.</_>
        <_>
          46 22 2 5 2.</_></rects>
      <tilted>1</tilted></_>
    <_>
      <rects>
        <_>
          46 13 4 9 -1.</_>
        <_>
          43 16 4 3 3.</_></rects>
      <tilted>1</tilted></_>
    <_>
      <rects>
        <_>
          46 17 3 8 -1.</_>
        <_>
          47 17 1 8 3.</_></rects>
      <tilted>0</tilted></_>
    <_>
      <rects>
        <_>
          46 20 4 2 -1.</_>
        <_>
          47 20 2 2 2.</_></rects>
      <tilted>0</tilted></_>
    <_>
      <rects>
        <_>
          48 18 3 6 -1.</_>
        <_>
          49 18 1 6 3.</_></rects>
      <tilted>0</tilted></_>
    <_>
      <rects>
        <_>
          53 16 4 9 -1.</_>
        <_>
          55 16 2 9 2.</_></rects>
      <tilted>0</tilted></_>
    <_>
      <rects>
        <_>
          55 11 4 15 -1.</_>
        <_>
          57 11 2 15 2.</_></rects>
      <tilted>0</tilted></_></features></cascade>
</opencv_storage>
