<?xml version="1.0"?>
<opencv_storage>
<stage4>
  <maxWeakCount>5</maxWeakCount>
  <stageThreshold>-1.4016559123992920e+00</stageThreshold>
  <weakClassifiers>
    <_>
      <internalNodes>
        0 -1 5149225 -6.1724218539893627e-04</internalNodes>
      <leafValues>
        7.5468164682388306e-01 -7.6315790414810181e-01</leafValues></_>
    <_>
      <internalNodes>
        0 -1 4437501 6.6783698275685310e-03</internalNodes>
      <leafValues>
        -9.3188101053237915e-01 5.5307710170745850e-01</leafValues></_>
    <_>
      <internalNodes>
        0 -1 5567461 1.5237561892718077e-03</internalNodes>
      <leafValues>
        -8.6994320154190063e-01 5.2051049470901489e-01</leafValues></_>
    <_>
      <internalNodes>
        0 -1 5467452 -2.1806637232657522e-04</internalNodes>
      <leafValues>
        5.1299482583999634e-01 -8.3588480949401855e-01</leafValues></_>
    <_>
      <internalNodes>
        0 -1 6135363 -6.0595350805670023e-04</internalNodes>
      <leafValues>
        5.1425296068191528e-01 -7.5827455520629883e-01</leafValues></_></weakClassifiers></stage4>
</opencv_storage>
